0.356508
-1.320439
0.140635
-1.120964
-1.198863
1.978439
-0.607936
-1.027313
0.347946
1.923819
0.594574
0.066906
1.358972
-0.521085
-0.660494
0.520619
0.448484
-0.511005
1.101455
-0.231044
-1.330962
-1.897201
0.201130
-0.537481
0.910438
-0.135603
1.274344
-0.375226
0.129793
0.072672
3.026883
0.740770
1.277693
1.087676
-1.231671
1.094691
0.989768
2.408315
0.196219
-0.251685
-0.215151
-0.159821
0.279109
0.655826
0.169010
0.265978
-0.166937
-1.306668
0.392352
0.972547
1.400351
-0.311403
-1.730848
1.309629
1.211564
0.045374
-0.249329
0.373087
-0.544745
-1.070003
-1.661374
2.005234
-1.033786
0.345148
1.293831
0.846777
-0.083490
-0.745675
0.227679
0.295156
-1.010297
0.273487
-0.248859
0.556666
0.280496
0.797066
1.815570
0.520874
-0.895415
-0.164545
0.424730
-1.381060
1.330780
1.237764
-2.573596
0.439532
-0.045249
0.601713
1.027121
-1.011831
0.519038
-0.260685
-0.601810
0.481392
-0.029667
0.544159
0.079917
1.283811
0.432659
0.049703
-0.539192
-1.165424
-0.560909
-0.946201
1.675564
-1.017894
0.231681
-0.112997
1.304343
0.282962
0.460687
-0.972671
-1.372759
0.778450
-1.457397
0.727397
-0.383524
-1.455988
1.199009
-2.004257
0.114008
0.699241
-0.456506
0.342776
0.512776
0.604298
0.839101
-0.261306
0.702951
0.103788
-0.789833
0.707579
0.607076
0.233023
-0.740551
0.793398
-0.999706
-0.393358
-0.597060
-0.127426
0.195241
0.432008
1.418168
-0.467699
-1.229725
-0.175005
-0.245274
0.294518
1.832844
-1.722491
0.428543
-0.590128
1.120412
0.376582
0.914100
-1.038902
-0.188431
0.384944
-1.244340
-1.543427
0.579814
-0.014920
-1.331969
1.249492
0.762665
-0.685768
-1.583649
-1.942646
-0.181136
1.062724
-0.815236
2.480200
-1.251355
1.515463
-1.346382
-0.674797
0.498430
0.840550
0.523395
-1.428903
1.469235
0.376187
-0.818569
-0.373191
-0.574561
-1.189779
-1.114427
-0.605565
-2.052868
1.369890
-0.551695
1.011220
0.789641
0.129587
-1.129028
-0.152691
-1.165361
-0.238556
0.031679
0.524106
0.862715
0.497961
-0.246468
0.653830
0.113425
-0.539500
-0.843201
1.807368
-2.102149
-1.443968
-0.173182
0.555881
0.509974
-0.695818
0.178070
1.524711
1.828047
1.232567
0.536114
0.661263
0.326545
-0.526564
-1.235113
-0.291914
0.599995
0.048832
0.928454
0.277943
-1.380712
-0.636884
-0.770426
-1.888204
-0.142103
1.603687
0.799996
1.270175
0.519898
-0.830317
-2.398793
-0.118481
1.733756
2.421902
1.670930
-0.406431
1.080581
0.093931
-0.534389
-0.243988
0.341851
-1.298896
0.917406
0.358235
-1.792508
-0.105607
0.174626
0.478471
-0.093116
-0.214763
0.004033
1.015120
-0.892149
-0.561813
-0.213215
2.877553
-0.991885
0.076594
-0.740682
-1.744462
-0.192670
1.638652
-3.010855
-1.854733
2.141468
-0.649560
-0.024264
-0.810658
1.675922
0.215583
0.161732
-1.022904
-0.043159
-1.701433
-1.414139
0.009592
0.782930
-1.517547
-0.102649
0.815548
1.219800
3.004333
-1.064793
-1.063911
0.696990
-0.109622
0.688715
0.875205
0.653063
0.320982
-0.690401
-0.706585
-0.740970
-0.887414
0.262465
-1.152121
0.085097
0.059607
1.329702
0.664523
-0.266438
-0.147114
1.910303
0.208352
1.499565
0.663840
0.239024
-0.714543
0.412843
2.270644
-0.384044
0.158267
-2.457164
0.216662
0.510350
-0.539195
-0.340995
1.062205
-0.732871
-1.921961
0.359545
1.942967
0.583383
-0.720306
0.005890
1.184243
0.060270
-1.107417
-1.530784
-1.339029
0.422999
1.879045
-0.305742
-0.974833
-1.770465
-0.554452
-0.967143
0.045195
1.206398
-0.303794
1.277143
1.008294
-0.793648
0.051942
-0.208098
0.494617
-0.520269
0.478692
-0.421683
-1.764665
-0.152831
-0.084856
0.255067
-0.117124
0.212748
0.925870
0.088019
0.638340
0.094743
1.674858
-0.121758
-0.326400
-1.631856
0.402487
-1.532197
1.668300
-1.174183
-0.524988
-0.795784
-1.192772
-0.002332
0.014231
0.033071
0.786017
0.527367
0.870378
1.182115
0.937383
1.243487
0.001131
-0.122701
0.317269
2.057505
-0.654707
-0.014713
-1.502339
-0.749523
-0.208490
0.484895
0.475088
-0.201959
2.035806
-0.532270
0.725825
2.361744
1.495205
1.546739
-1.382787
0.926052
0.534640
-2.459468
-0.737147
-1.564526
-0.021302
0.951803
0.190110
-0.037305
0.226534
0.500782
1.290371
-1.552131
1.602826
-0.031061
-1.086447
0.124573
-0.572052
-1.992523
-0.035206
-0.303656
0.368992
0.742280
1.345878
0.009600
0.299656
0.281234
0.290916
0.647543
-0.733823
-1.044205
-1.335577
0.958803
-1.271899
-0.281580
0.852350
-1.793413
0.078164
-2.242784
-0.348938
0.360480
-1.349821
-0.966007
0.369044
-1.253981
-0.138203
0.035815
2.140378
-0.236907
0.078336
-2.435354
0.468571
1.532231
0.513511
-0.942666
1.072690
0.365514
-1.171873
0.711318
1.341483
0.719551
-0.903426
-0.003279
0.790230
-0.700236
0.180468
-0.092743
0.381310
1.420506
0.151341
0.501053
0.822459
-1.670331
1.074017
0.139103
0.833697
1.152837
-0.614081
0.133780
-1.379720
-0.342021
-0.438402
1.029790
1.361431
0.368409
0.205402
-1.167711
-1.568141
-0.891771
0.439236
-1.035117
0.365627
0.824574
-1.783996
-1.021755
0.648589
0.215215
0.770011
0.290908
0.162245
0.072974
1.208949
-1.717047
-0.016486
0.085809
0.757476
0.575449
0.543554
-2.480891
-1.328848
2.075669
-0.125390
-0.437143
0.173095
1.428174
0.706888
-1.063845
0.085402
0.613558
-1.900245
-0.067069
-0.272010
-0.643365
-0.462485
1.183760
0.604014
-0.569624
0.842925
0.574440
0.205167
-0.225196
0.262686
-0.536698
0.203333
1.009043
0.883623
-0.369731
0.283299
-0.845646
0.237325
-1.560364
-0.348287
-2.064201
-1.697613
-0.431260
-0.147977
-0.333318
-0.792238
0.340280
0.005614
0.912911
-0.189191
0.100728
-2.283361
1.289946
-0.351918
-1.386379
-0.889492
1.601327
0.755073
-1.003585
-0.409894
-1.603895
1.728104
-0.085197
0.080475
-0.178078
1.606695
-0.786358
1.007471
1.113278
0.509027
0.484392
-0.571386
0.955317
-0.312246
-0.983243
0.363673
-0.255859
-0.789719
0.569594
0.276741
-2.132406
1.196718
0.900043
1.030612
0.470206
1.710679
1.567564
-0.661059
-0.314003
0.665026
0.198849
0.771371
0.300979
-0.190648
-0.171146
-0.341132
0.536402
0.953369
-0.022304
-1.021953
0.283360
-1.520201
-1.019749
-1.140793
-1.315529
2.035871
-0.892216
0.221829
1.046894
-0.405724
0.938725
1.097615
0.573919
0.670780
0.155349
-0.221884
1.056033
-1.073140
0.339361
0.623365
0.484721
0.189449
0.694329
-0.091332
2.029095
-0.683570
0.685353
-0.508748
-0.412266
0.163220
-0.870690
1.248816
1.671672
-0.080292
1.161184
-0.423429
-1.283861
-0.656141
-1.547229
0.983542
-1.733104
0.217018
-0.656081
-0.057554
1.959136
-0.128393
1.081268
-0.529719
0.886828
-1.544625
0.253815
-0.823923
-0.499392
0.834062
-0.765084
-0.810492
-0.708736
-2.279978
1.095436
-0.572404
0.642538
0.520308
-0.035388
0.506976
-0.534836
-0.644928
0.985071
0.596158
0.755647
-0.814668
1.443950
1.001396
-0.422718
0.564922
-0.316355
-1.422479
1.366258
0.452557
1.001575
-1.345614
0.258887
-0.026485
-0.889543
-1.574389
0.664730
0.312013
0.316687
0.201347
-1.003639
1.492273
0.984452
0.495474
-0.306008
-0.873029
0.830352
0.840025
-0.540324
0.916324
0.162540
0.615630
-1.578239
-0.664835
-1.240796
-1.383258
1.589581
1.579842
-0.968486
-0.883786
-1.208476
-1.000391
-0.357435
-1.305404
0.700983
-1.065670
-0.279384
1.078453
-1.628534
1.697521
0.563192
0.464637
0.069311
0.333343
1.890179
0.954680
-0.092180
-0.389573
2.068423
0.064731
-0.676186
0.420507
1.615381
-1.620736
-1.238110
-0.133389
-1.007837
0.725777
-1.116750
-0.335614
0.792453
-3.543384
-1.119394
-0.676351
1.052793
1.431681
-0.628760
0.362029
0.268304
1.683227
-0.223520
-0.838836
0.043093
0.720612
-0.093052
0.841056
-0.113967
-1.157817
1.437846
0.194578
-0.148382
-0.155584
-1.132176
-0.346798
1.100383
-0.049554
0.523331
0.529353
0.335612
-0.322236
0.898395
0.749248
-1.109186
0.593280
-2.040022
0.754347
-1.901361
-0.123172
0.004154
-0.750480
0.639576
0.421258
-0.269577
-1.384232
-1.009098
-0.789699
-0.208368
0.762724
-0.076082
-1.831404
0.003809
1.275726
0.183494
0.190764
0.935615
-0.121272
-0.159676
-1.041872
-1.096113
0.799427
0.056537
-0.286546
0.305887
1.537227
0.588702
0.967215
0.747902
-0.984784
-0.138255
1.929010
-1.343916
0.405706
-0.658365
-0.773037
-0.907897
0.762669
1.672398
1.195218
2.008998
-0.637042
0.529152
-0.774507
0.718564
-0.681055
0.053878
-0.468664
2.738661
1.540428
-0.122359
0.178552
-2.114934
-1.010282
0.021585
-0.218479
1.387457
1.374947
0.083163
0.508283
0.638296
0.472208
-1.791549
-1.940582
-1.379683
-1.370978
-0.227288
0.900020
-0.031415
0.192623
1.773301
-0.338336
0.221029
0.152007
-0.715210
0.814404
-0.154004
0.681261
0.571242
0.541434
0.446504
0.092548
-0.457237
1.494952
-2.564533
0.389716
1.311794
1.537585
-0.545627
0.988322
0.095803
0.252916
3.206550
-0.089536
1.523932
0.761214
0.431252
0.751255
-0.068438
-1.349361
-0.596466
-1.077602
-0.849962
-0.663395
1.139127
-0.132254
-0.112847
-0.273684
-0.827263
0.507975
2.090079
1.367735
-0.955492
0.040955
0.651644
-0.457502
-0.640918
0.210463
-1.166021
-1.106284
0.067754
1.454891
-0.934094
0.334670
-0.330959
-0.642346
1.708988
-0.255546
0.001813
-1.117213
-1.309051
0.143792
0.062382
-0.480241
-1.680050
1.625140
-1.365399
-1.536168
-0.312113
0.119343
0.259295
0.813577
-0.745475
-1.144902
1.254405
-0.844229
0.191901
0.152886
-0.081142
-0.592321
0.043842
0.002925
-0.148726
0.711367
2.165031
-0.305940
-0.979654
-0.430108
-1.309921
-0.853273
0.480991
-0.238204
-0.581127
1.275663
0.252523
-0.614326
-0.450319
0.219411
2.587941
-0.355853
-0.327217
-0.394317
-0.062596
-1.358918
-0.433966
1.646586
0.354080
0.236515
-1.624364
1.400681
0.990997
-1.426299
-1.140342
1.260269
0.182020
0.026225
-0.899745
-0.599100
1.112966
-0.828857
-1.580247
-0.825609
-1.159231
1.248942
-2.244373
-0.085063
0.116623
-1.542208
0.162431
-0.959593
-0.301919
1.335079
0.544745
0.185363
0.097124
0.288813
-0.424270
1.505590
0.793548
-0.137571
-0.619714
0.754296
0.551414
1.330384
-0.561252
-0.963036
-1.301053
2.565839
0.268021
0.392209
0.355083
-0.075120
0.215057
-0.209660
-0.909070
0.337995
1.120993
-0.704751
1.300117
0.137047
1.039137
-0.406948
-0.785494
-0.404523
-0.082428
0.555838
-0.672352
-0.470578
0.011919
0.698455
0.918931
-0.604670
0.237076
0.661276
0.842988
-0.027381
0.062321
-1.116245
0.753483
0.296474
-2.441247
-0.091266
1.168826
-0.080621
-0.057021
-0.904826
0.418023
-0.118846
0.836352
-0.945791
1.911968
0.196263
0.346951
-1.555284
0.584339
-1.165022
0.540668
1.024804
-0.051667
-1.510416
1.166198
0.119152
-1.478682
-0.446747
0.204410
0.142447
0.501550
0.711143
-1.153131
0.068388
-0.001276
-1.308779
0.122354
-0.289446
0.363013
-0.588237
-0.558294
-1.624536
0.115299
-1.091923
-0.609785
-0.342657
0.642240
0.875104
-0.483288
-0.675591
-0.969304
-2.004045
0.986817
0.716441
0.326541
1.656134
0.311282
-0.207770
-2.146756
0.045251
-1.230910
0.105334
1.315751
0.293396
0.541462
1.160911
0.889202
-0.781065
-1.316528
-0.835224
0.553926
-0.371473
-0.639779
-0.567695
1.327907
-1.313051
-1.128040
2.673940
-0.969739
0.708172
-0.918220
-0.599145
1.018250
-0.847794
-0.770088
0.526742
0.352837
-0.969598
0.171583
-0.592526
-2.033169
-1.013817
-0.317360
-0.126083
-0.011376
-0.194794
-0.202057
1.417797
-0.622196
-0.356743
0.280858
0.055911
0.754037
0.826277
0.339817
1.369848
-0.587191
0.206999
-0.305710
0.913519
0.974069
-0.203574
-0.591656
-0.034718
-0.767330
1.785212
-0.281913
0.127243
0.651779
-0.817191
-0.544232
1.002322
0.733854
-0.935967
1.622994
2.538455
-0.725827
0.444856
-2.020997
0.618279
0.093666
-0.393092
0.677371
-0.221237
-2.554588
-0.060036
0.041301
2.913890
2.352672
0.536950
0.893595
-0.277948
-1.695873
1.087706
-1.660553
0.308994
-2.294899
-0.986749
-1.141079
1.401886
-1.915249
-0.189446
-0.256823
0.410168
-0.239093
-0.641241
-1.682306
-0.514327
-0.794118
-0.719798
0.911550
0.028589
0.306089
1.805592
-0.872405
0.728515
-0.586609
-1.033919
0.392922
-0.396035
-0.260248
-0.514381
-1.105063
0.222787
0.014506
-0.177341
1.601160
-1.771908
-0.232885
0.186870
0.122608
1.374531
-1.149966
1.028342
0.828091
0.945166
-0.848400
0.829815
0.680056
-0.339857
-0.851794
0.764357
-0.387536
0.299070
-0.412058
-0.365543
0.047648
-0.205417
0.124957
-0.772552
-0.953149
-0.139786
-1.622188
1.158699
-0.912751
-0.611898
-1.975671
-1.334664
0.197610
-1.445646
-0.556020
-0.465066
-1.055037
-0.890267
2.173266
-1.648058
-0.574434
-0.024377
-0.899373
-0.054988
0.373568
0.464497
0.476086
-0.563403
0.881693
1.658328
1.671122
0.171400
-0.227037
-0.016729
1.387537
-1.084117
-0.165302
-1.426545
1.425999
1.133646
-0.890609
1.109839
-0.323381
0.505161
-1.160381
-0.919971
0.499625
0.936998
-0.003794
-2.280625
0.077379
-0.043769
0.148004
0.930009
-0.128942
-0.256945
0.975587
-0.385534
0.928955
1.127685
1.311779
-0.084261
0.271075
0.685944
0.693756
-0.779850
-1.008543
-1.267949
-0.100820
0.650641
-0.531803
0.802195
-0.861116
0.852799
2.374388
0.499247
0.219787
0.742955
-0.491512
0.714479
0.097124
-0.189386
1.084355
-0.459864
0.085410
-0.539399
0.767848
-2.337488
-1.797756
-0.544367
-0.398728
-1.030776
1.121913
-0.634497
0.287636
1.583392
-0.295443
-0.377920
-1.846155
0.237966
-0.369434
-0.380822
-0.998266
0.529048
-0.028667
-1.296977
0.494400
-2.059978
-0.250432
-0.778676
-1.264071
0.707479
1.517554
0.691290
0.146269
-0.938006
-0.861137
-0.930739
-0.214653
-0.639510
0.081066
0.688433
-0.854523
-0.228132
0.584802
0.368006
0.331180
1.993582
0.386191
1.249206
-1.461788
0.566111
1.263175
0.301286
0.543437
-2.366502
0.053314
-0.259331
1.025909
0.987271
-1.789168
0.896123
0.085756
0.658054
0.514080
-0.112945
-0.028030
-0.528559
-0.329805
-1.848513
-1.181823
0.913630
0.973305
-2.904114
-0.360806
-0.417165
-1.527232
-0.591516
-0.534116
0.924395
1.201246
-0.436964
-0.763632
-0.714517
1.109590
-0.388170
0.739488
-0.044152
1.030566
-0.134235
2.076967
0.350872
-1.127717
0.836701
-1.000631
-0.258192
1.583341
0.609095
-0.133637
1.234305
-0.284115
0.003355
1.714095
-0.100358
-0.998971
0.242698
-0.027545
0.153432
0.180956
-0.136012
-0.671568
-0.198090
-0.918748
0.575415
0.082948
0.533838
-0.113499
0.841231
0.445733
1.654522
-1.195158
-1.596855
0.060897
-1.314536
0.126897
-1.517576
-0.029056
0.133770
-1.403995
-1.210145
0.185251
-1.558379
-3.041279
-0.370707
1.712685
-1.812706
2.078755
0.528709
-0.446270
-1.696848
-0.233438
0.867576
-0.697375
0.839574
-0.303607
-0.594321
-1.017186
0.104287
-0.022041
-1.068219
0.776928
-1.031238
0.402247
-0.538393
0.186280
0.555849
1.090947
0.197048
1.464238
-0.653858
0.006055
0.532388
-1.943837
-0.410133
-1.211448
0.282231
1.171691
0.290705
-2.359157
1.489330
-0.007393
2.188770
-1.111964
0.202565
0.212342
1.016973
-1.920777
0.423341
0.067091
0.765197
-0.475671
0.717167
-0.475509
-1.354515
0.236982
0.027958
0.100454
0.202354
-0.062745
1.142658
0.253586
-1.068145
0.205015
0.534312
-1.393531
0.697893
-2.547668
-2.292862
0.208623
-3.378193
-0.156448
-1.114033
0.890289
0.382851
0.384930
1.713053
1.444007
0.581951
0.751344
-0.220456
-1.667864
0.221876
-0.764505
2.564261
-1.443344
0.872087
0.817285
-1.326781
0.380981
0.019781
0.269167
0.974959
1.089210
-2.153258
-0.675715
-2.318177
0.662078
0.452823
-1.019598
1.124268
-1.483962
-0.460445
-0.435189
0.195418
-0.150190
-2.944382
0.934684
-0.107049
0.273611
0.800945
-1.225340
-0.465540
0.594755
-0.476596
0.003074
-0.821488
0.624148
1.088570
0.232114
0.742762
0.972087
-0.247740
0.471725
-0.270963
-1.058194
-1.018973
-0.049571
0.011880
0.338082
-0.996758
0.753378
-0.706434
0.389439
-1.430638
-1.107953
1.725103
-0.320639
-1.007300
-0.589683
-1.028119
1.456187
0.111603
-0.810691
-1.308430
0.264318
0.162397
0.285946
-2.156483
-0.946383
-0.610401
0.358816
-0.348213
-0.781688
1.033190
0.702270
0.150371
1.674322
1.117589
-0.690574
-3.172053
0.808061
-0.131107
0.562348
-0.708199
0.983017
0.630096
-0.956508
0.699179
1.600348
-0.314128
1.694106
-0.165669
-0.931358
-0.218695
0.132509
-0.343704
-0.530359
-0.092797
-0.014269
1.564095
0.766095
-0.942753
1.476176
0.947463
0.292432
1.974920
0.355567
0.613120
0.267274
0.538904
0.243217
-0.413288
0.095841
-0.837843
-0.718744
-0.795990
0.433762
1.067450
-0.613809
0.282263
-0.071330
0.468460
0.791715
1.608710
-1.369762
0.772539
1.370368
1.138808
0.649466
0.511093
-0.959236
-0.067287
-0.036182
-1.590042
-0.118561
-1.202581
0.843070
1.050068
-0.527449
-1.427524
-0.160054
0.892789
-0.723753
-0.796431
-0.921432
0.339178
1.817229
1.669631
0.106183
-0.471768
-0.176002
-0.262458
0.565536
-0.480388
-0.245590
1.163243
1.105895
-1.099900
0.557722
1.188909
-0.194799
0.783963
-0.202878
0.864938
-0.873799
0.029317
-1.220928
0.180793
0.735221
-0.231130
-1.455257
-1.322155
-0.946107
0.156857
1.414187
1.485031
-1.454983
-0.401022
-0.518230
-0.385674
1.277456
1.432935
-0.382245
1.596003
0.044825
0.299952
1.470107
1.044685
0.323037
0.427716
0.409892
0.540170
0.395279
-1.228587
-0.990316
-0.793567
0.750224
-0.693127
-0.395328
0.924795
1.410221
-0.919500
-1.065190
-0.772350
-0.034015
-0.417336
0.354960
2.681851
-0.170313
-0.851891
0.168552
0.030043
-0.130487
-0.005599
-0.292041
-0.249012
-0.553056
0.917160
-0.799157
1.126653
0.738844
0.339672
-0.902126
0.708669
-0.394278
-1.417164
-0.137086
0.311102
-0.706126
-2.165862
0.192344
0.269386
1.229749
-0.461392
1.269364
1.245733
1.416223
-1.171243
1.112124
1.255793
-0.774913
-0.958243
0.133194
1.454680
0.507421
-1.242464
1.170812
1.099990
2.494617
0.046460
-0.364606
0.569726
0.606426
1.443739
0.360477
1.142532
0.802774
0.369640
-0.368597
0.445002
-0.188096
0.197151
-1.225199
1.658914
-1.388486
0.622846
0.874769
0.139897
0.441291
-1.124906
-1.548643
-0.252319
0.441364
-0.456608
1.143739
-1.380910
-1.585140
1.177973
-0.223815
-0.123152
0.349069
0.473878
-1.096125
1.253311
-0.167812
0.858078
-0.767823
0.345589
1.642816
1.202793
1.155370
-0.541233
0.732325
0.395705
1.109909
-0.633067
0.889588
0.141617
-0.362480
-0.052893
1.522526
0.068532
-1.072910
0.300487
0.654863
0.654971
-0.047896
-0.498110
0.377591
1.175660
-2.439131
0.603199
-0.772838
-1.450942
1.166113
-0.756057
-0.961624
0.521935
-0.476345
-0.778574
-2.207805
0.560093
0.428448
0.106322
3.015580
-0.401467
1.152405
-0.923078
-0.350939
0.734322
1.720288
-1.804645
1.088138
-0.739125
-0.466307
-0.084301
0.205019
-0.419420
0.381623
0.040675
0.106086
-0.358461
0.315874
-0.534770
-0.287793
0.992194
-0.363708
-0.315504
1.230789
-1.888884
-1.016645
0.912225
1.167856
0.376202
0.690338
-0.596206
0.383653
-0.325680
-0.721354
2.379397
0.155614
-0.473713
-0.724253
-0.654023
-1.879239
0.365824
-1.019902
-0.846965
1.342889
0.230204
-0.568230
0.666210
-0.015504
-0.371918
-0.106946
-2.013594
-1.341363
-0.771566
1.091351
0.367943
2.099431
-0.051339
-1.539073
0.467226
0.144644
-0.009683
0.885318
0.410486
0.582231
-0.768867
1.851288
-0.556098
-0.937265
-0.426123
1.372347
-0.063962
1.160409
-0.318163
-0.485424
1.217774
-0.698280
-1.081405
1.639642
0.160517
-0.861973
0.409221
-0.281829
0.979648
-2.816397
1.021545
0.183453
-0.850689
-0.597728
0.722509
1.020558
0.695039
0.618627
-0.799721
0.933938
-0.571535
-0.481650
-0.615616
-1.167349
-0.946064
0.762110
-0.164049
0.347637
-0.689422
2.591781
0.727015
-1.196729
-0.430372
-1.237610
1.004275
1.799498
0.399576
1.370169
-1.256784
0.420759
0.483628
-0.353770
0.021238
0.077127
-1.116743
-0.227656
-1.120356
-1.243684
-0.707691
-0.824302
-0.272449
-1.179873
1.231052
-0.062813
1.411286
-1.941149
0.460674
2.617332
0.147279
-0.170549
-1.495645
-0.549919
-0.942403
-1.976790
0.452603
-2.193123
-1.269894
-0.519783
-0.080979
-0.685067
0.533458
-0.126921
-0.263372
0.413423
-2.015269
0.708377
0.457451
-0.761038
1.246501
-0.610015
0.288179
-0.720443
-1.503681
-0.021379
-0.900856
-0.990530
-1.628282
-0.375339
0.554479
0.533136
0.182314
-0.768775
0.151765
0.297194
0.498915
-0.843350
0.817468
-0.070700
-1.087942
-0.348300
0.331714
0.219913
1.872263
-0.518507
-0.536218
0.665063
-0.535517
0.000508
0.380272
-0.138104
0.468050
-0.636256
0.700918
-0.191620
-0.599412
-0.024372
-2.229219
-0.292502
-0.729614
0.101245
2.584804
-0.995927
-0.882458
1.717917
-0.691586
-1.819384
-0.331272
0.837988
-0.988410
1.432750
-0.798923
-1.407302
-0.624342
0.573040
0.748471
-0.868511
0.410378
-0.180078
-0.404561
0.625106
-1.091809
1.541834
0.915686
0.942562
0.405547
0.176317
-1.028267
-1.255509
0.773781
0.183661
-1.739610
-0.223437
-0.452902
1.076008
-1.701896
-1.051982
2.906286
1.433678
0.016759
-1.054469
-0.562697
-0.519585
0.469774
-0.628927
-1.978720
-0.574195
0.679955
0.781177
0.020111
-0.788430
0.687813
-0.918675
0.121218
1.204681
-0.030410
0.015112
-0.267801
-0.484980
1.413193
-0.413937
1.122052
-0.972902
-0.281225
1.652677
0.709502
-1.294713
0.614163
0.053134
-0.160705
-0.482349
1.441753
-1.664572
-2.046598
-0.377712
0.389314
0.414259
1.735327
0.665742
-0.786790
1.772294
0.782744
-1.117521
2.883277
0.172563
0.000068
0.149354
-0.691956
0.095206
-1.825119
-0.633832
-1.202147
-2.340550
-0.337988
-1.068506
-0.023559
0.785328
0.306230
-0.396682
-3.848198
0.322542
-0.472530
0.023263
0.371335
0.200534
1.809741
0.021833
-0.059875
0.436934
0.638811
0.145707
1.136477
-0.722479
-2.181916
0.041077
0.451130
-0.438668
-0.587766
0.405615
0.665985
-0.958224
-1.461621
1.081467
0.329723
-0.010706
-1.002110
0.796648
-1.190729
0.856188
0.285409
-1.411222
0.364205
-0.149272
-0.041867
0.091831
0.004550
0.073521
-0.045924
0.350130
-0.242721
0.637495
1.420969
-1.130317
-1.055062
-0.856792
-1.539529
-1.214667
0.429907
0.816934
-0.108411
0.694748
0.380732
2.007991
1.675795
0.436182
0.571527
-0.550362
-1.388131
1.198314
1.160461
0.359496
-0.247327
0.596136
-1.091410
-1.279716
0.372800
0.431901
0.411540
-0.261208
0.006618
0.111853
0.094618
-1.279835
2.172181
1.376928
0.042278
-0.377526
-1.617409
0.242631
-0.677649
-0.226566
0.575873
0.688918
-0.346067
0.120489
-1.325759
-0.442566
0.717341
0.794699
0.967470
-1.386307
-0.422118
-0.369984
0.280243
0.196028
-0.768549
-0.560457
1.161153
-0.227301
2.199019
-1.188108
-1.993299
-1.242505
-0.074854
0.227802
0.959749
2.023651
1.085844
0.076410
0.185324
0.916052
0.179925
0.351922
1.635729
2.001551
-0.055645
-0.397589
0.802064
0.210956
0.480856
0.361240
-0.941728
0.412331
0.345715
0.048486
0.465077
-1.001379
-1.085874
-0.586094
-0.763553
-0.651129
-1.908680
0.574527
0.988982
0.895311
0.206511
-0.780485
-1.471106
0.509402
-1.103820
-0.185156
-0.027534
-0.179159
0.608280
0.806470
1.371062
0.282214
0.613409
-1.530095
0.072183
-0.647623
-1.196952
0.663605
-0.799059
1.490663
-0.172214
-1.535670
-0.753605
-0.377636
0.327246
0.738571
-0.734246
-0.255539
-0.031910
-0.506722
0.045714
1.253083
-0.701628
-0.069562
0.266199
0.721510
-0.777560
-1.577262
1.404620
-0.193114
1.115571
0.250096
0.889113
0.843404
0.278428
-0.278560
0.413015
-0.201230
1.075387
0.616552
-0.357116
1.819848
1.506882
-0.843364
-0.651062
-0.142719
0.224036
1.411875
-0.387418
0.464813
0.821771
1.534540
0.474402
-0.473799
0.615078
-0.263140
0.361537
1.528170
-0.586740
0.685608
1.159020
-0.349868
0.277673
-1.157786
-0.405487
-1.196162
-0.262850
0.143746
-0.565577
0.939746
0.314041
-0.117348
-1.860548
-1.123554
-0.787806
0.096987
0.694221
-0.747349
1.261498
-0.349437
-1.669664
-2.906518
-0.411850
0.397475
1.248556
-0.527631
2.116347
0.458686
0.607368
-0.067234
0.331217
-0.361966
0.939111
0.012540
-0.677192
-0.312148
-1.747601
-1.281890
0.810699
0.133387
1.501165
-0.813364
-0.923420
-0.331748
2.733025
-0.110490
-0.778500
-0.747511
-0.298556
0.278361
0.207339
-0.438781
0.320968
1.292863
1.652851
-1.898374
-0.529066
-0.894346
0.408958
1.761753
-0.767700
-1.181869
0.462426
0.106337
-2.790884
-0.058535
-0.555905
-0.621749
0.746038
1.561064
0.149923
-0.240736
1.046469
1.539727
-0.285610
-0.509768
-0.332230
0.019707
0.461279
-1.574052
-0.920039
-0.234869
0.939937
0.384675
0.410536
-0.241574
0.697512
1.012255
-0.471964
-0.214069
1.405068
-2.714081
0.054427
1.879269
0.113512
-0.156514
0.292410
0.302928
1.967102
0.173971
-1.315204
0.235458
-0.977250
0.030669
-1.183139
-1.182142
0.976222
0.095699
0.430336
-1.551436
-0.313571
0.943851
0.605652
1.454763
-2.898259
-0.058578
-1.350408
0.224564
0.260471
0.774978
1.436475
-0.123325
-0.958228
1.319289
-0.723066
0.142453
1.282626
-0.661878
0.191494
-2.607343
-1.009415
2.589625
1.727246
1.826177
-1.512166
-0.431337
0.687562
-0.100705
-0.263285
-0.163300
-0.508457
-0.334163
-0.275192
-0.180196
-0.145753
-1.637070
0.407653
-0.736817
0.802347
0.223301
0.532349
-0.485840
-1.308187
-0.870908
0.176299
1.909864
0.182411
0.467075
-0.070024
0.556198
1.394306
0.051060
-0.937496
-1.643341
0.004942
-0.634726
-0.381338
0.274623
-0.482977
0.691353
-0.099254
0.101571
-0.621456
-1.203608
-0.775776
-1.775855
0.231521
-0.334940
-0.071471
1.069852
-0.091274
-2.128512
0.207497
-0.751422
-0.017907
-0.092530
1.378447
0.542222
1.158879
0.596552
1.356161
0.188160
1.657020
0.065707
1.899933
-0.535321
0.930944
-0.980031
-2.107101
-0.280018
1.145345
-0.309941
-0.803977
0.913133
0.141863
0.715912
-0.500035
-1.012066
0.115915
0.651258
0.022711
0.233862
-0.012326
-0.784036
-1.153923
-0.493233
-1.334782
1.356143
0.927184
-2.018239
0.183509
-0.243997
-1.533806
-0.680022
-0.104024
0.848247
1.237830
0.067622
-1.373651
-0.782173
1.039861
0.837563
-1.035559
-0.548459
1.502083
-1.443302
-3.008161
-0.256126
2.895477
-0.223647
-0.338490
-0.345671
-0.733173
-0.042355
-1.303243
1.921361
-0.516170
0.567384
-0.827966
-1.226397
0.625688
0.209383
2.049869
0.111068
1.000052
0.075921
0.494498
0.091525
-1.780226
1.510313
0.310160
-0.003864
-1.043715
0.878919
-1.295953
0.005030
0.341887
2.155935
1.377914
0.693984
-0.691979
-0.524824
2.068037
0.153763
0.130331
1.326266
-0.984633
-0.540066
-0.741413
-0.892057
-0.507593
1.821326
-0.405594
1.859969
-0.422579
0.161527
1.215811
0.345253
-0.586688
-0.874724
-1.413198
-0.951745
0.937033
-0.047964
0.208765
0.815492
0.808690
-0.485408
-0.182624
-0.046185
1.780663
0.213670
0.499770
-1.434861
-0.631878
-0.810632
-1.338734
0.451365
-0.672313
-1.256133
0.365283
-1.643805
1.471036
0.595070
-0.127728
1.740418
1.780061
0.449610
0.319256
1.721437
1.140689
0.099085
0.553109
1.229617
-0.840117
-0.107646
0.974192
0.214447
-0.676010
0.351543
-0.442343
-0.992307
0.152070
0.905636
0.833171
0.329828
-0.787285
-0.812198
-0.369718
-0.317439
-1.004788
-0.809859
-0.959403
0.976534
1.150047
0.231123
0.540131
0.662620
1.079037
1.508442
-0.592737
0.684635
1.113379
0.458704
-0.465647
-0.288651
0.591347
-0.538818
-0.467849
0.282318
-0.121979
-0.784388
-0.206573
0.974190
0.183019
-0.078633
-0.417121
0.272578
0.510771
0.446111
-0.718131
1.003211
-1.479128
-1.235590
-0.398981
0.198794
-0.805926
-0.782838
-0.679700
-1.288843
-0.016960
-0.499169
-0.354824
0.031759
-0.185483
0.804059
-0.728422
0.426490
0.378102
0.362733
-0.473080
1.484997
-0.054445
1.126459
-0.560662
-1.864828
-0.518688
0.754582
-1.025022
-1.078793
-0.918701
0.503162
0.490590
-2.073591
0.059710
-0.838910
-1.268104
0.642802
0.294572
-0.478222
0.259074
-0.701030
2.056650
0.030314
0.444984
-0.482589
0.289759
1.671789
0.596545
-0.759585
-0.538343
0.949564
0.661436
-0.166785
0.370249
1.373101
-0.514704
-1.197143
-2.423160
0.875145
-0.422703
-0.626529
-1.596316
0.316322
0.303574
1.404219
-0.848438
1.167401
-1.102817
0.037934
-1.511913
0.680884
0.778185
-1.069690
0.727840
-1.673813
2.530319
-0.634636
-1.439401
0.682201
0.770714
1.356736
2.596769
-0.512123
-0.204390
-0.785009
-1.456575
-0.814770
-0.094485
-1.113111
-0.303624
1.044543
-2.141828
0.063028
-0.850827
-1.653663
0.639866
0.092384
1.728188
-0.579272
0.863430
-1.148361
0.336236
-1.442032
-0.436881
-2.621878
0.449276
1.302673
1.595040
-1.314034
-0.730528
-0.524027
0.000689
0.654158
-0.482245
-0.063858
-0.769744
-1.561264
-0.067780
0.885562
1.852901
-1.270544
-1.086975
-0.767631
0.342740
2.563241
-0.482722
0.156970
0.695110
-2.463621
0.068736
0.643092
0.227507
-0.310258
-0.074439
1.644836
0.125361
1.225024
-0.973257
1.415620
-0.104370
-0.426722
-0.665023
0.022600
2.093143
-0.605579
1.695138
0.154923
0.136018
0.578034
0.364321
-0.169958
0.611687
-0.504582
0.615992
-0.338972
1.478003
-1.342165
-0.174970
0.210022
-0.425048
0.427446
-0.610677
-0.893683
0.494859
0.447991
-0.440317
0.221614
-0.456024
-0.686722
-1.237281
0.171087
1.109920
-0.708427
0.755254
1.618973
1.411330
-0.463304
0.633577
0.153945
0.597476
0.816360
0.691175
1.277677
-0.131414
-1.157186
0.426385
0.071338
1.543186
0.335639
-0.368831
1.770018
0.097469
0.389277
-0.448961
-0.936601
-0.002498
-1.236579
-1.167430
0.679660
1.091368
-0.437224
-0.265423
-0.465674
-0.592604
0.570597
-2.670248
1.357689
-0.630463
-2.774055
0.434104
-0.096151
0.391053
-0.971821
-0.434548
-0.434043
-0.470254
0.801131
0.032593
-0.397597
0.659721
1.232371
-0.652895
1.604619
0.062484
1.515880
-0.998629
-0.782185
-0.211713
-0.030545
0.746017
0.073169
-0.590216
0.872578
0.499726
0.647882
-0.764637
2.189477
-0.367939
-2.318986
-0.288300
0.350351
1.025859
-0.005957
1.563205
-1.023291
-0.936020
-0.465463
0.642483
1.515837
0.536313
0.352098
2.120929
-0.732976
-1.376831
-0.029268
0.518552
-0.482776
-0.386894
-0.618794
0.061568
-2.695107
0.372025
2.011770
-0.594394
1.681745
1.267417
0.773260
0.755113
0.341204
-0.145802
0.183603
-0.299785
-1.164428
-1.179281
1.407889
0.254325
0.757452
-0.357098
-0.086527
-1.811559
1.332381
1.219029
0.516063
-0.417168
1.361131
-0.271493
-1.406397
1.095559
-0.174591
-1.175536
0.526690
-1.056790
-0.505180
0.472925
-1.351929
-0.546204
0.902264
1.028257
0.006301
-0.614381
-0.739242
0.788606
1.720299
-0.810696
-0.913818
0.015264
-0.967781
2.305921
-0.259901
-0.860590
0.191090
-1.114115
-1.066095
-0.085895
1.401780
0.129756
0.436467
-0.758860
1.232801
1.001527
-0.226433
0.419905
1.796237
-0.455735
-0.886341
2.654996
0.016532
0.103685
-2.310556
0.252626
0.408938
-0.400961
0.341571
-1.753803
-1.729549
0.192790
-0.808514
-0.258515
-0.928536
0.845704
0.435111
0.923118
0.481303
0.553462
-0.802594
0.516641
-2.153438
-1.124266
-0.918615
-0.672524
0.028630
0.105525
-1.034011
-0.103805
-1.519900
-1.329874
0.240590
-0.210939
0.848675
-0.238166
-1.009269
0.924600
