0.584404
0.645379
-0.537767
-1.350814
-0.406893
-0.209058
-0.062795
1.347301
0.893097
1.417838
1.550128
0.189571
-0.598657
-0.358718
-1.298181
0.799501
0.064357
-2.588271
-0.161517
0.223201
0.990206
0.709653
0.155489
0.451763
1.328044
-0.355181
-0.680025
-0.225333
1.693527
-0.278776
-0.305145
-0.168390
-0.393145
0.349722
-0.154294
0.372367
1.143523
-0.667805
-0.143868
-0.031528
1.863116
-1.185846
-0.127218
-0.267145
0.927921
1.159120
-1.370254
0.672441
-0.411479
-0.545681
0.458114
-0.754468
0.650521
0.174931
-0.489897
-0.417291
-1.091284
1.171473
0.297604
-1.897029
0.057592
-0.022451
0.462039
0.034651
-2.378724
-0.084169
2.247533
0.283657
-0.894367
1.247417
-2.305383
-0.290002
0.687530
-0.156415
-0.430085
0.002832
0.616495
-1.329092
-0.726872
-0.637982
0.201404
-0.801768
-1.324124
0.073293
0.545750
0.291733
0.686066
-0.069951
-0.120805
-1.359420
0.780604
-1.257490
-0.425766
0.794212
1.247019
0.386303
-0.146563
-0.904893
-1.265287
1.384377
-1.774622
-0.190819
1.261209
-0.442705
-2.609261
1.291048
-1.296867
0.893345
1.118712
-0.284760
1.045006
1.100400
-0.166343
-0.986284
1.303363
-0.382604
0.202942
-0.786204
-1.042460
-0.671021
0.992362
0.029674
-0.553978
3.615390
0.379416
-0.605890
-0.695400
0.067161
1.280116
-2.128089
1.048355
-0.973375
-0.227976
-0.954075
-0.611123
-1.709043
-0.152049
1.345822
0.045731
-0.605071
0.044462
-0.904203
0.883749
-1.220588
0.430203
-2.412498
1.412492
0.281801
0.379648
-0.446749
0.231970
-1.820923
0.284561
0.307296
-0.380725
1.354364
0.041267
1.152503
-0.827324
-0.368926
0.906727
-0.821263
-0.642364
0.305895
-1.106634
-1.381077
-1.045768
0.196471
-1.105900
0.723266
-0.882103
-0.758318
0.122602
0.567823
-0.012745
0.614920
-0.113257
-0.150945
0.186327
1.722990
-0.279896
-0.365755
-0.358870
0.962063
-0.878594
0.150468
-0.610442
-0.155498
1.094958
-0.498035
1.145088
-1.978644
0.238005
-0.238866
-0.164268
-1.012440
0.982854
0.470696
-0.559183
-0.129616
-1.109924
0.308570
0.613804
-0.336191
-1.130721
1.054443
-0.140681
-1.256240
0.071923
-0.427776
-1.785301
-0.700024
-0.286054
-0.967859
0.270227
0.244219
0.616776
0.684563
-0.830308
-2.122685
0.552735
0.449819
0.170713
0.536370
-0.398407
1.519498
-0.185469
-0.542730
-0.252575
1.349773
-0.201360
-0.217916
-1.342577
-1.162824
-1.055973
-0.824903
-0.786144
-0.982085
1.128053
1.697204
0.131809
0.922159
-0.752658
2.640725
-0.683952
0.473828
-0.284868
0.600969
0.953649
1.204362
-0.228625
0.054497
-1.457554
1.363729
-1.364705
0.250171
-0.542618
-1.701593
-0.541075
-0.124919
-1.189097
-0.572515
0.031933
1.563002
-1.110392
1.066369
0.801183
-0.473430
0.242491
1.448093
-0.548945
-1.008252
-1.719512
-0.758961
1.012733
1.029398
-0.204131
-0.590373
0.199495
1.132655
0.780728
0.085651
1.556580
0.887818
0.178828
-0.417635
0.504559
-0.946302
-0.558133
-0.493723
-0.955907
-0.281428
0.969630
1.371648
-1.062320
0.540047
1.576790
1.511461
-0.633413
0.373774
0.028884
0.298752
1.531349
1.106468
-1.057726
0.274192
-1.957402
-1.892330
0.547643
-0.153686
-0.792986
0.018906
2.204370
-1.421738
0.787528
-0.075047
0.129240
0.472685
-1.037639
1.104867
1.112015
1.167688
0.808888
-1.046810
1.137823
-0.821043
0.151025
0.000877
-0.633360
1.840185
-0.911200
-0.837478
-1.262465
0.167206
0.827365
0.240694
-1.024850
0.870531
0.948579
0.260926
0.152240
0.621219
-0.958009
0.352533
0.596141
0.480086
-0.751776
0.268232
-0.062480
0.272471
1.332574
1.511647
-1.382832
-1.217929
-1.049918
0.097297
-1.431861
-0.236079
0.188996
0.427080
-1.868574
-1.680915
0.263555
0.743372
-0.379491
-0.894469
-0.598570
-0.673170
-1.441791
-0.535415
-0.219244
1.451492
-0.702425
0.038788
1.002106
0.533792
1.176106
-0.377877
1.379919
-1.196678
-0.022729
-0.266407
1.356241
0.509870
1.208210
-1.844787
1.492072
0.639825
1.505301
1.359272
1.126033
0.002231
-0.858113
0.750120
1.192887
-0.064642
0.045877
-1.242294
0.770180
0.281328
0.379136
0.619605
-0.465887
-0.142152
-2.006728
-0.061306
-2.283889
0.278217
1.610833
0.306203
0.213935
0.604533
-0.631353
-0.283888
-1.475406
-2.050745
-0.252177
-0.336383
0.211947
-0.579892
1.057627
-2.462854
-0.230587
-0.661535
0.574563
0.080552
-0.502981
1.619121
-0.978306
-1.338960
-0.916699
0.484795
0.773785
0.879325
-2.030224
-0.903228
-1.103948
0.092807
0.541728
0.240787
-0.487938
1.073329
-1.482780
-0.263143
0.791454
1.401705
-1.498601
2.035326
-1.286952
-2.782290
-0.472835
-0.054287
0.315919
-0.608456
-0.397981
-0.995752
-0.265024
-0.271374
1.900731
-0.961775
0.499282
-1.179423
-0.620652
-1.723885
-0.988987
0.275717
-0.112239
0.232864
0.289550
1.372107
0.493703
0.399159
3.083467
2.039523
-0.182234
0.263185
0.346025
1.267730
0.632275
-1.271333
0.078063
-0.178799
-0.272670
-0.443458
-0.970189
-0.512685
0.537098
0.293102
1.322019
1.504285
0.531274
0.455474
0.086696
-0.143046
0.462173
-1.027063
-0.073649
-0.204859
0.672022
0.324402
0.946800
0.900908
-1.986488
0.759164
0.702313
-0.189203
-0.075569
0.389029
0.583579
1.131377
-0.753332
-0.563836
