0.015810
-0.006281
0.012459
0.006702
0.011828
0.000714
0.009650
0.009398
-0.002445
-0.013042
0.001614
0.017835
-0.005878
-0.006474
0.003636
-0.008357
-0.010010
-0.005293
0.007051
-0.014021
0.004606
-0.001955
0.002099
0.005454
0.010960
0.009860
0.023604
-0.001825
0.001252
0.030882
0.012056
0.007733
-0.003433
0.015349
0.010620
-0.008336
-0.005206
0.000922
0.005825
-0.006353
-0.010760
-0.002096
0.003784
-0.023307
-0.000692
-0.012105
-0.005617
0.005446
-0.010604
-0.007843
0.019450
-0.004761
-0.001912
0.002287
-0.012544
0.000074
0.007865
0.000342
-0.007793
-0.004314
0.003512
-0.009531
0.005788
0.003311
0.004340
0.009504
-0.002612
0.012927
-0.004098
-0.004815
0.002676
0.006801
-0.008235
0.002938
-0.003830
-0.015257
-0.005065
0.008565
0.002939
-0.011467
0.008908
-0.002514
-0.012177
0.007786
-0.019106
-0.015196
0.005132
-0.002909
0.017408
0.001986
0.007809
-0.008430
0.004105
0.008485
0.009486
-0.001895
0.006795
0.005039
-0.001165
0.005805
-0.000581
-0.005540
0.008654
-0.017351
0.006441
-0.002645
0.000507
0.004965
0.004702
0.006379
-0.006940
0.020020
0.008582
0.000787
0.010600
-0.002741
0.002464
0.000117
-0.012572
-0.008771
-0.002345
-0.001744
-0.010776
0.006407
0.004012
0.005733
-0.007016
-0.001858
0.007067
0.021104
0.012443
-0.002161
0.008961
0.008685
0.001863
-0.014019
-0.014896
0.003370
0.009909
-0.000542
0.007932
0.005633
0.003741
-0.005440
0.003205
0.014048
0.013170
-0.011344
-0.005147
-0.026570
-0.005194
0.004400
0.007691
0.001614
-0.009152
0.011760
0.000846
0.008109
-0.004974
0.006425
0.000993
-0.009104
0.005958
0.002977
0.021548
-0.001036
-0.011571
0.002058
0.011539
-0.008476
-0.009252
0.007193
0.007629
0.007543
0.006936
0.004253
-0.007335
0.001055
0.008582
0.002467
-0.005456
-0.002621
-0.009074
-0.004974
0.004195
0.004929
-0.000334
0.006277
0.020016
0.004001
-0.002809
0.026547
-0.001168
0.000168
0.006100
0.002377
-0.008755
-0.007132
-0.000616
0.009997
0.006638
0.005228
-0.000178
0.019828
0.002246
0.011632
-0.013005
0.009624
0.009142
0.002319
-0.006484
-0.006762
0.001989
0.004515
-0.002109
0.008683
0.000130
-0.000841
0.002986
-0.003099
-0.010496
-0.020289
0.000030
0.005661
0.014084
-0.004430
-0.011354
0.000701
0.005998
-0.003560
0.008477
-0.011556
-0.009226
0.009875
-0.008322
-0.001318
0.002390
-0.004236
0.020488
-0.006647
-0.009837
-0.001275
-0.000371
-0.000844
0.017772
-0.008825
-0.000227
-0.006080
-0.001225
0.001551
-0.013865
-0.018690
0.001191
-0.010895
-0.012950
-0.005140
0.000601
-0.004574
0.005049
-0.008578
0.014455
0.012531
-0.013679
-0.007050
0.010245
-0.014959
-0.008952
-0.007255
0.001805
0.000540
0.003746
-0.007383
0.003374
0.000462
-0.003441
0.008173
-0.021941
0.015083
-0.000469
0.007098
0.002680
-0.011162
-0.013527
0.024304
0.012436
-0.003285
0.005630
0.004670
-0.002935
0.011207
-0.036227
0.012603
0.000744
0.023374
0.007937
-0.009776
-0.006924
-0.007666
0.012632
-0.007473
-0.012671
0.016736
0.000318
-0.019588
-0.004694
-0.002607
-0.003090
-0.001559
0.011134
0.013818
-0.004328
-0.002761
0.011226
0.018005
0.013951
-0.006092
-0.014340
0.000093
0.010854
-0.002646
0.015259
0.013273
0.002237
0.002762
0.008582
-0.003377
0.002102
-0.008561
0.000816
0.006333
-0.016480
-0.002694
-0.006528
-0.000266
-0.006298
-0.007930
0.009625
0.002523
0.016574
-0.000447
0.004087
-0.018254
0.017983
0.009900
-0.005884
-0.014123
-0.016696
-0.012066
-0.009370
-0.018059
-0.004199
0.005522
-0.010937
0.002434
-0.013597
0.002610
-0.003245
0.005418
-0.000049
-0.009841
0.004865
0.006953
0.008468
0.003053
0.002357
-0.008835
0.012533
0.010180
0.002837
-0.002019
0.005263
0.010021
0.011288
-0.007395
-0.014633
-0.000218
-0.005697
0.008874
-0.008795
-0.004606
-0.010397
0.015931
0.008530
0.002374
-0.016204
-0.008288
0.009804
0.002161
0.007295
-0.008283
0.015437
0.013411
-0.005715
0.003117
-0.000059
0.007489
-0.008533
0.009803
-0.017289
-0.002918
-0.009196
0.001977
-0.005287
-0.005957
-0.012687
0.005821
-0.006650
-0.003472
-0.012846
0.011357
-0.005221
-0.009233
0.026380
0.012351
0.005567
-0.004313
0.003627
0.005715
0.005127
-0.016243
-0.002402
-0.001898
0.011337
0.004268
0.013680
-0.009846
-0.000998
-0.008768
0.005061
0.011990
0.018921
0.010578
-0.009615
-0.009992
-0.000071
-0.013884
-0.015770
0.009236
-0.005205
0.004283
0.004327
0.009741
-0.018488
-0.005563
-0.009041
-0.007999
0.002553
-0.006373
0.005926
0.009664
-0.014473
0.001890
0.010987
-0.002860
-0.016250
-0.019493
-0.018598
0.001346
0.013365
-0.000130
-0.006507
0.013038
-0.002671
-0.010300
0.007183
0.008273
-0.007632
-0.003555
0.010861
-0.018067
0.004424
0.009772
-0.013281
0.022529
-0.000878
0.003975
-0.002948
0.003179
0.015242
0.001932
0.008645
0.006328
-0.000632
-0.004461
0.007932
-0.001162
-0.002589
0.015776
-0.003037
-0.005637
0.007554
-0.008000
-0.005987
0.008662
0.002838
0.002024
-0.001630
0.001344
0.001549
-0.015846
-0.005967
0.012183
0.019886
-0.000709
-0.011858
-0.012868
-0.011011
0.001424
-0.006750
-0.003244
0.008820
0.000451
